{"weights":[{"row":7,"column":8,"elements":[-0.1428319981186963,0.6074953422831513,0.9918341446895163,-0.5372421741485596,0.36546751856803896,-0.49325555210193819,-0.7969610013816002,-0.5757593122013205,-0.5084793567657471,-0.5347504907217555,0.8094481229782105,-0.7858130662203611,-0.1568361520767212,0.9095316750453506,0.2928015846730787,-0.3805290460586548,0.12005918575431096,0.8972752094268799,0.13824343370723825,-0.43439972400665285,0.6395299434661865,-0.33245551586151125,-0.4996389150619507,-0.30870479546712917,-0.7218334674835205,-0.7305466865110244,0.08105885982513428,0.06134235858917236,0.8300347328186035,0.6726128569138155,0.9374749660491943,0.5295647354892736,-0.4272502660751343,0.9685826301574707,-0.2641785008530375,-0.01197454361457062,-0.7524819568308807,0.002734681577290843,0.3276524245738983,-0.12379565894674016,-0.88041756195536,-0.6865463256835938,-0.49694016562592938,-0.2005386565300018,-0.6476116685757347,0.4276837648228753,0.49864456057548525,-0.9397696590722042,0.06754891574382782,-0.6194989797186832,-0.013368488066804574,-0.2418578972773382,0.4695283879000378,1.0242957214298159,0.9705998961375215,-0.3239859342575073]},{"row":8,"column":4,"elements":[-0.6664043539831113,0.8722097873687744,-0.001292586326599121,-0.7822705381724262,0.02580869197845459,0.011035279214479666,0.5607021898278504,-1.061338534295503,0.7479314804077148,-0.2315850853919983,-1.0098644690000285,0.8807332515716553,0.014985544082236402,0.33273440750405128,0.7430964112281799,-0.1479267681002483,0.3835696998809901,-0.5093861392440644,0.9178290566545684,0.6868231712903796,-1.0372073180601156,0.43406884488064537,-0.5264310836791992,0.6912588470525147,0.17383182048797608,-0.3841415553285543,-0.4134871383262375,-0.9605203052993314,-0.47588956356048586,-0.48209036417090447,-0.4684920966162949,-0.29821632576880577]}],"biases":[{"row":1,"column":8,"elements":[-0.3809403821393218,-0.1535731554031372,-0.7116029262542725,0.6675891876220703,-0.861213207244873,0.6733687876583545,0.34262558817863467,-0.8119342437574701]},{"row":1,"column":4,"elements":[-0.40305664182413639,0.5509941562624192,-1.6141213178634644,0.4629567657787348]}],"inputSize":7,"hiddenSize":8,"hiddenLayers":1,"outputSize":4}