{"weights":[{"row":7,"column":8,"elements":[0.5014538764953613,-0.46073782444000246,-0.35072052478790285,-0.314966082572937,0.14063751697540284,-0.9051122665405273,0.10249269008636475,0.8760256767272949,-0.19713938236236573,-0.3001922369003296,-0.5618672370910645,-0.24079906940460206,-0.6035563945770264,-0.9410176277160645,-0.0001951456069946289,0.9770157337188721,-0.5461907386779785,-0.9440512657165527,0.5989315509796143,0.25664636492729189,0.9233105182647705,0.655083417892456,-0.7759456634521484,0.4554459750652313,0.16903531551361085,-0.12898790836334229,0.5949075222015381,-0.5552184581756592,-0.4109245538711548,-0.8815677165985107,0.8100869655609131,-0.6797568798065186,0.46463653445243838,0.994964599609375,0.734163761138916,0.26691266894340517,-0.8072159290313721,0.6570625305175781,-0.09913432598114014,-0.07686865329742432,0.8575537204742432,0.04842269420623779,-0.16494476795196534,-0.16769707202911378,0.36845991015434267,0.020130038261413575,-0.4160722494125366,0.7583310604095459,0.26808449625968935,-0.38226115703582766,0.9782273769378662,-0.43259990215301516,-0.9415130615234375,-0.6794915199279785,-0.9291729927062988,-0.3478962182998657]},{"row":8,"column":4,"elements":[0.3809046447277069,-0.6749334335327148,-0.3998357057571411,0.876091480255127,-0.05835425853729248,0.918088436126709,0.1561039686203003,-0.8821151256561279,-0.40499746799468996,0.3754565417766571,-0.21034038066864015,0.6749095916748047,0.5395710468292236,0.7682349681854248,0.5942370891571045,-0.4376488924026489,0.6008760929107666,0.15458381175994874,0.16345608234405518,0.30736276507377627,-0.8113715648651123,-0.8263998031616211,0.43769571185112,0.5715198516845703,-0.3062220811843872,0.018177390098571779,-0.6588304042816162,-0.7648887634277344,0.5808534622192383,0.8129942417144775,0.5725531578063965,-0.6672854423522949]}],"biases":[{"row":1,"column":8,"elements":[-0.059365153312683108,-0.23270642757415772,-0.8125095367431641,-0.7720098495483398,0.27243754267692568,-0.17595350742340089,0.37428948283195498,-0.039560914039611819]},{"row":1,"column":4,"elements":[0.15279757976531983,0.707888126373291,0.704697847366333,-0.7457380294799805]}],"inputSize":7,"hiddenSize":8,"hiddenLayers":1,"outputSize":4}