{"weights":[{"row":7,"column":8,"elements":[-0.8816580772399902,0.36557719111442568,0.3232285678386688,0.5274391174316406,0.4850914180278778,0.6933863162994385,0.8399591445922852,-0.647007942199707,0.0467144250869751,-0.3684459924697876,-0.3544098138809204,0.673687219619751,0.4005989730358124,0.5261058807373047,0.9219238758087158,-0.10855257511138916,-0.24639999866485597,0.19642603397369386,-0.546818733215332,-0.1319798231124878,-0.3351219892501831,-0.36372697353363039,0.20822060108184815,0.07292830944061279,0.07831704616546631,-0.3773001432418823,-0.27132880687713625,0.9963893890380859,-0.3019214868545532,0.24397122859954835,0.8745636940002441,0.5752325057983398,0.9477131366729736,-0.8235321044921875,-0.3300820589065552,-0.8495984077453613,-0.7266666889190674,0.7559027671813965,-0.8505849838256836,0.8407928943634033,0.9142477512359619,0.43323466181755068,0.5789389610290527,0.21408021450042725,-0.6241092681884766,0.895329475402832,0.4834241569042206,0.06932103633880615,0.9818441867828369,0.3918168246746063,-0.3837066888809204,-0.39553534984588625,0.32761046290397646,-0.4754539728164673,0.6887080669403076,0.555638313293457]},{"row":8,"column":4,"elements":[0.8210351467132568,-0.4845322370529175,-0.08030927181243897,0.5757720470428467,0.13753998279571534,0.03214919567108154,0.5256955623626709,-0.8856930732727051,-0.8189735412597656,-0.9222233295440674,-0.5018830299377441,-0.04280555248260498,0.8030571937561035,-0.8108537197113037,-0.14431941509246827,-0.9246809482574463,0.4403545558452606,0.3232087790966034,0.2502417266368866,0.6158919334411621,-0.36244475841522219,0.8336760997772217,0.06640374660491944,-0.6902511119842529,-0.3598400354385376,0.6570959091186523,0.07325446605682373,-0.8107120990753174,-0.8107614517211914,-0.6741552352905273,-0.2946828603744507,-0.02178037166595459]}],"biases":[{"row":1,"column":8,"elements":[0.34131500124931338,-0.3881775140762329,-0.5923166275024414,-0.06166398525238037,-0.7810707092285156,0.21897494792938233,0.4506518542766571,-0.005895256996154785]},{"row":1,"column":4,"elements":[-0.4517565965652466,0.2927543818950653,-0.20638740062713624,0.39546677470207217]}],"inputSize":7,"hiddenSize":8,"hiddenLayers":1,"outputSize":4}