{"weights":[{"row":7,"column":8,"elements":[-0.9916071891784668,-0.1752244234085083,-0.38688623905181887,0.6305880013739209,-0.6473910808563232,-0.3457416296005249,-0.27758586406707766,-0.5044310092926025,0.69673812001564,0.5412450882318325,-0.8673545117634856,0.44516512751579287,0.5572948455810547,0.59407639503479,-0.5113842144536562,-0.8215517719860728,0.011640429496765137,-0.4026888847810639,0.5492470264434815,0.5590974593059173,-0.7306288594448915,-0.36000630475712028,-0.8359031677246094,-0.5372271060943881,0.6971421241760254,0.37604638934135439,0.2501051127910614,-0.09065067768096924,-0.8609554767608643,-0.3854257558651959,0.03152167797088623,0.6903195381164551,0.7999159417243007,-0.7194188786999796,0.057342411229022619,-0.514293909072876,0.055714009343773799,-0.4294666051864624,0.9486560285607055,-0.5448417663574219,-0.6353890108083533,0.7725496598461454,-0.28386104106903078,0.0923842191696167,-0.9117986195868291,-0.9748572662346078,-0.39122679829597475,0.22567379474639893,0.18456232196882639,-0.9268628266783399,-0.4875893677176055,0.10974991321563721,-0.1968291997909546,-0.7305221557617188,-0.11911815146887683,-0.4103404335169589]},{"row":8,"column":4,"elements":[-0.905821027391152,-0.9803117513656616,-0.6462974548339844,0.5032230019569397,-0.4406503438949585,-0.43939411640167239,0.6553309155530114,-0.209509015083313,-0.6676450045828872,-0.781501293182373,0.45306655764579775,-0.7450191656038228,0.31654642104104627,0.9437188046198735,-0.9375457763671875,0.43311527779505,-0.39983547967577329,0.12974361665678114,0.6054501533508301,-0.6692607402801514,-0.10168957800600964,0.09103977680206299,0.3263210952281952,0.6288480758666992,-0.6962881088256836,0.2446657419204712,-0.7720224857330322,-0.9783809185028076,0.46058730991499177,0.9108870029449463,0.6947526711141929,-0.09598665812812968]}],"biases":[{"row":1,"column":8,"elements":[0.7315788269042969,-0.23601585320214014,-0.740330696105957,-0.9643533229827881,0.041491631797420328,-0.038057290081461307,-0.5095185646078111,0.5729053020477295]},{"row":1,"column":4,"elements":[-0.8648932189506517,0.4418136775493622,-0.38115736355477738,-0.3212946653366089]}],"inputSize":7,"hiddenSize":8,"hiddenLayers":1,"outputSize":4}